<?xml version="1.0"?>
<opencv_storage>
<stage5>
  <maxWeakCount>8</maxWeakCount>
  <stageThreshold>-1.0938464403152466e+00</stageThreshold>
  <weakClassifiers>
    <_>
      <internalNodes>
        0 -1 12275 4.0951482951641083e-02</internalNodes>
      <leafValues>
        -4.2231947183609009e-01 7.3684209585189819e-01</leafValues></_>
    <_>
      <internalNodes>
        0 -1 50172 2.6833308860659599e-02</internalNodes>
      <leafValues>
        -4.2801100015640259e-01 6.5536373853683472e-01</leafValues></_>
    <_>
      <internalNodes>
        0 -1 47856 1.8679462373256683e-02</internalNodes>
      <leafValues>
        -8.6950612068176270e-01 2.9492670297622681e-01</leafValues></_>
    <_>
      <internalNodes>
        0 -1 24720 1.4415780082345009e-02</internalNodes>
      <leafValues>
        -8.7564671039581299e-01 2.3285190761089325e-01</leafValues></_>
    <_>
      <internalNodes>
        0 -1 38432 3.6155461566522717e-04</internalNodes>
      <leafValues>
        -8.2970917224884033e-01 1.8201412260532379e-01</leafValues></_>
    <_>
      <internalNodes>
        0 -1 76350 -3.8817978929728270e-04</internalNodes>
      <leafValues>
        4.1072347760200500e-01 -4.6810048818588257e-01</leafValues></_>
    <_>
      <internalNodes>
        0 -1 33247 -3.5632438957691193e-03</internalNodes>
      <leafValues>
        3.9145594835281372e-01 -5.0819557905197144e-01</leafValues></_>
    <_>
      <internalNodes>
        0 -1 53092 2.7215110603719950e-03</internalNodes>
      <leafValues>
        -7.3219591379165649e-01 2.3183444142341614e-01</leafValues></_></weakClassifiers></stage5>
</opencv_storage>
