<?xml version="1.0"?>
<opencv_storage>
<stage7>
  <maxWeakCount>7</maxWeakCount>
  <stageThreshold>-7.5494903326034546e-01</stageThreshold>
  <weakClassifiers>
    <_>
      <internalNodes>
        0 -1 9272 4.4398825615644455e-02</internalNodes>
      <leafValues>
        -3.5926774144172668e-01 6.7481660842895508e-01</leafValues></_>
    <_>
      <internalNodes>
        0 -1 26431 -1.5542566776275635e-01</internalNodes>
      <leafValues>
        5.8130317926406860e-01 -3.9776912331581116e-01</leafValues></_>
    <_>
      <internalNodes>
        0 -1 51429 -2.0532734692096710e-02</internalNodes>
      <leafValues>
        2.9837498068809509e-01 -7.6641756296157837e-01</leafValues></_>
    <_>
      <internalNodes>
        0 -1 32680 5.0875041633844376e-03</internalNodes>
      <leafValues>
        -7.9335701465606689e-01 2.2228568792343140e-01</leafValues></_>
    <_>
      <internalNodes>
        0 -1 72973 -4.0103220380842686e-03</internalNodes>
      <leafValues>
        2.7113580703735352e-01 -6.2586587667465210e-01</leafValues></_>
    <_>
      <internalNodes>
        0 -1 30908 2.0601529628038406e-02</internalNodes>
      <leafValues>
        1.6451892256736755e-01 -8.9324587583541870e-01</leafValues></_>
    <_>
      <internalNodes>
        0 -1 43307 1.8460425781086087e-03</internalNodes>
      <leafValues>
        -9.2373615503311157e-01 1.3424539566040039e-01</leafValues></_></weakClassifiers></stage7>
</opencv_storage>
